{
    "conv2d/kernel:0": [
        [
            [
                [
                    1.0457684993743896,
                    -2.0594589710235596,
                    0.2111220508813858,
                    0.42284032702445984,
                    -0.12368008494377136,
                    1.4247533082962036,
                    0.27114173769950867,
                    -0.9215720891952515
                ]
            ],
            [
                [
                    1.5619467496871948,
                    -0.6613090634346008,
                    0.06456196308135986,
                    0.09711027145385742,
                    0.574741780757904,
                    0.8482459783554077,
                    0.07566236704587936,
                    0.07722146064043045
                ]
            ],
            [
                [
                    1.3186414241790771,
                    0.643215000629425,
                    0.20354531705379486,
                    0.29562434554100037,
                    0.22545126080513,
                    -0.9134392142295837,
                    0.17303438484668732,
                    0.15596795082092285
                ]
            ]
        ],
        [
            [
                [
                    -0.014910399913787842,
                    -2.0814692974090576,
                    0.34583792090415955,
                    0.24576058983802795,
                    0.1585104763507843,
                    1.4716167449951172,
                    0.2880052328109741,
                    -0.27437230944633484
                ]
            ],
            [
                [
                    0.1335970163345337,
                    -0.024915488436818123,
                    0.19034162163734436,
                    0.23726244270801544,
                    0.5641617774963379,
                    0.12763209640979767,
                    0.2643565237522125,
                    0.5909901857376099
                ]
            ],
            [
                [
                    0.20817996561527252,
                    1.1592463254928589,
                    0.40137726068496704,
                    0.2453504353761673,
                    0.2690291702747345,
                    -2.0253684520721436,
                    0.06745154410600662,
                    0.37716564536094666
                ]
            ]
        ],
        [
            [
                [
                    -1.9014564752578735,
                    -1.719115138053894,
                    -0.22381344437599182,
                    0.4004809558391571,
                    0.2994349002838135,
                    0.42977795004844666,
                    0.20990213751792908,
                    0.30942144989967346
                ]
            ],
            [
                [
                    -2.4063560962677,
                    -0.20128768682479858,
                    0.1154504343867302,
                    0.16111256182193756,
                    0.6327059864997864,
                    -1.0129191875457764,
                    0.2939317226409912,
                    0.37899741530418396
                ]
            ],
            [
                [
                    -1.211920142173767,
                    0.6983233690261841,
                    0.07336203008890152,
                    0.35427597165107727,
                    0.04237259551882744,
                    -1.8170444965362549,
                    0.4269845485687256,
                    0.05057172849774361
                ]
            ]
        ]
    ],
    "conv2d/bias:0": [
        0.05035151168704033,
        0.4171616733074188,
        -0.03413916006684303,
        -0.27008727192878723,
        -0.0026747523806989193,
        -0.00014510378241539001,
        -0.2476443201303482,
        -0.003281711135059595
    ],
    "dense/kernel:0": [
        [
            -0.0135840168222785,
            0.009844732470810413,
            0.00580194965004921,
            0.005673075094819069,
            -0.013537026941776276,
            0.011786110699176788,
            -0.005481269676238298,
            0.005209691822528839,
            -0.007289464119821787,
            -0.0023531997576355934
        ],
        [
            -0.0709591805934906,
            0.06102753058075905,
            0.03035467118024826,
            0.03327016159892082,
            -0.066909059882164,
            0.05745203420519829,
            -0.028352439403533936,
            0.023525353521108627,
            -0.03443872183561325,
            -0.01699015684425831
        ],
        [
            1.4342854228743818e-06,
            1.0905661440574477e-07,
            -0.00012944304035045207,
            7.354881381615996e-05,
            1.368177322547126e-07,
            1.1376565453247167e-05,
            1.6107260307762772e-05,
            5.713544669561088e-05,
            -4.715510385722155e-06,
            1.2286551509532728e-07
        ],
        [
            6.866292423524101e-09,
            7.153453940311749e-10,
            -5.905098987568635e-07,
            3.492302539598313e-06,
            -1.3772393003819161e-08,
            1.551984496472869e-08,
            6.96795893873059e-07,
            6.991438567638397e-06,
            1.0623931530062691e-06,
            9.5191787785609e-10
        ],
        [
            -0.0017129108309745789,
            -0.0002285866066813469,
            -0.0021906024776399136,
            0.0010964059038087726,
            0.0008116909302771091,
            -0.00020829409186262637,
            0.0007316047558560967,
            -0.0003002939629368484,
            -0.00010820564784808084,
            0.00043667401769198477
        ],
        [
            -2.153950163119589e-06,
            -1.3489320735970978e-06,
            -1.4270361134549603e-05,
            0.00015309258014895022,
            -0.00010668069444363937,
            4.299120519135613e-06,
            9.621211574994959e-06,
            1.7594999007997103e-05,
            -0.00011414437176426873,
            -1.1600519428611733e-05
        ],
        [
            -1.2697017659490939e-08,
            -2.019217015813979e-09,
            4.1737998799362686e-06,
            -0.00024233924341388047,
            -6.215808756593333e-09,
            -3.015973959463736e-08,
            1.4590084447263507e-06,
            1.8718747014645487e-05,
            2.0510594822553685e-06,
            -5.554861459700078e-09
        ],
        [
            -0.00011516916856635362,
            -1.3169733392714988e-07,
            -0.00038371336995624006,
            -0.00033878954127430916,
            0.0018018975388258696,
            5.88390958000673e-06,
            -0.0004440375487320125,
            -0.0006519180606119335,
            -0.00039706792449578643,
            -0.0006360108382068574
        ],
        [
            -0.012757022865116596,
            0.009138926863670349,
            0.007481970824301243,
            0.007219699211418629,
            -0.012828770093619823,
            0.009741734713315964,
            -0.008399466052651405,
            0.0049036769196391106,
            -0.006506015546619892,
            -0.0023655842524021864
        ],
        [
            -0.07170713692903519,
            0.06352578848600388,
            0.037191472947597504,
            0.03520830720663071,
            -0.08352038264274597,
            0.062436699867248535,
            -0.011993730440735817,
            0.017800185829401016,
            -0.03481977805495262,
            -0.02090735174715519
        ],
        [
            -5.321561548043974e-05,
            0.020521003752946854,
            -0.002346716122701764,
            -0.0024566520005464554,
            -0.0111905662342906,
            -0.0006430065841414034,
            0.0037783526349812746,
            0.0007989341393113136,
            -0.00031667124130763113,
            -0.0001280883589060977
        ],
        [
            -7.850128167774528e-05,
            0.020149273797869682,
            -0.0018735284684225917,
            -0.002735302085056901,
            -0.00664113275706768,
            0.0009302509133704007,
            0.001953879836946726,
            0.007586013991385698,
            -0.0004952832823619246,
            -9.273008618038148e-05
        ],
        [
            -0.0023396348115056753,
            0.019236749038100243,
            0.0041570900939404964,
            -0.004691364709287882,
            -0.009336931630969048,
            0.003143925918266177,
            0.005433384329080582,
            0.013735748827457428,
            -0.006483611185103655,
            -0.005206879694014788
        ],
        [
            -0.0003171035787090659,
            -1.5440937204402871e-06,
            -1.7687754734652117e-05,
            0.00010334706166759133,
            2.382895036134869e-05,
            1.822068043111358e-05,
            4.1007628169609234e-05,
            2.571444565546699e-05,
            -0.00016305316239595413,
            9.12646271444828e-07
        ],
        [
            -0.00022072253341320902,
            0.018267503008246422,
            -0.0006777342641726136,
            -0.003091812366619706,
            -0.004801508504897356,
            0.0022042482160031796,
            0.001736980164423585,
            0.008740286342799664,
            -0.0008740322082303464,
            -9.350892651127651e-05
        ],
        [
            -0.0005531864590011537,
            0.020039457827806473,
            2.2893917048349977e-05,
            -0.004698518663644791,
            -0.008720062673091888,
            0.0021835167426615953,
            0.006353013217449188,
            0.010308997705578804,
            -0.0038305758498609066,
            -0.004840569104999304
        ],
        [
            -0.01317122858017683,
            0.00941515527665615,
            0.005392375402152538,
            0.009913265705108643,
            -0.018782980740070343,
            0.00493611628189683,
            0.0012069318909198046,
            0.0046762991696596146,
            -0.0070845214650034904,
            -0.0017304257489740849
        ],
        [
            -0.07651340216398239,
            0.05599221587181091,
            0.052006497979164124,
            0.036127135157585144,
            -0.08460251241922379,
            0.05982367694377899,
            -0.015374373644590378,
            0.022851381450891495,
            -0.0328594408929348,
            -0.03132748231291771
        ],
        [
            -0.005690387915819883,
            0.015096738003194332,
            0.0008161152945831418,
            0.00838387105613947,
            -0.015822120010852814,
            0.0030478027183562517,
            0.011194266378879547,
            0.011603112332522869,
            -0.001814423711039126,
            -0.00734592555090785
        ],
        [
            -0.007761689368635416,
            0.01833578199148178,
            0.004452168941497803,
            0.011865372769534588,
            -0.022045230492949486,
            0.005692360457032919,
            0.011454830877482891,
            0.015111914835870266,
            -0.0006582064088433981,
            -0.007689484860748053
        ],
        [
            -0.015567750670015812,
            0.01873769424855709,
            0.006882564164698124,
            0.021068217232823372,
            -0.03587711229920387,
            0.014631753787398338,
            0.030349627137184143,
            0.01494720857590437,
            -0.011970717459917068,
            -0.014597117900848389
        ],
        [
            -5.020843673264608e-05,
            1.6067257320173667e-06,
            0.000811604899354279,
            -0.0006950755487196147,
            -0.0009707448189146817,
            -0.00044118074583821,
            0.0019123388919979334,
            8.806520781945437e-05,
            -0.00022476966842077672,
            -0.0002011363540077582
        ],
        [
            -0.0077161481603980064,
            0.019374163821339607,
            0.000659349316265434,
            0.009610714390873909,
            -0.022195128723978996,
            0.007207764312624931,
            0.013064151629805565,
            0.01590665429830551,
            -0.0009067882201634347,
            -0.00748058594763279
        ],
        [
            -0.009690342471003532,
            0.010304173454642296,
            -0.00011397624621167779,
            0.01383872888982296,
            -0.017491063103079796,
            0.011196642182767391,
            0.017870936542749405,
            0.013834486715495586,
            -0.00760994665324688,
            -0.014199755154550076
        ],
        [
            -0.013111615553498268,
            0.008959352970123291,
            0.028886953368782997,
            0.008945949375629425,
            -0.022256139665842056,
            0.0016277455724775791,
            -0.015112996101379395,
            0.004475585650652647,
            -0.0031367535702884197,
            -0.0030634962022304535
        ],
        [
            -0.06466120481491089,
            0.06582348793745041,
            0.029166365042328835,
            0.04532243683934212,
            -0.12179966270923615,
            0.06479592621326447,
            0.04432230815291405,
            0.002975047565996647,
            -0.030464235693216324,
            -0.047932229936122894
        ],
        [
            -0.0021662372164428234,
            0.007439850829541683,
            0.012016326189041138,
            0.029133964329957962,
            -0.028474261984229088,
            0.004705129656940699,
            0.029341356828808784,
            -0.014356845058500767,
            0.0034134266898036003,
            -0.021298542618751526
        ],
        [
            -0.004296927247196436,
            0.011879864148795605,
            0.023931404575705528,
            0.029473254457116127,
            -0.03347575291991234,
            0.007122216746211052,
            0.02473846822977066,
            -0.0094603868201375,
            0.011243664659559727,
            -0.028369273990392685
        ],
        [
            -0.011528819799423218,
            0.011882664635777473,
            0.031014850363135338,
            0.04199971258640289,
            -0.06323074549436569,
            0.02114120125770569,
            0.05709175392985344,
            -0.016535643488168716,
            0.0011704260250553489,
            -0.04831375926733017
        ],
        [
            -0.005645259749144316,
            -0.00047768751392140985,
            0.002375517738983035,
            -0.005584103520959616,
            -0.021048905327916145,
            -0.00022275181254372,
            0.04018450528383255,
            0.011047177948057652,
            -0.002389597473666072,
            -0.004633377306163311
        ],
        [
            -0.002756421687081456,
            0.010558477602899075,
            0.016984086483716965,
            0.029465626925230026,
            -0.028685688972473145,
            0.007085192482918501,
            0.022638604044914246,
            -0.010956388898193836,
            0.006054786033928394,
            -0.028454378247261047
        ],
        [
            -0.0011303666979074478,
            0.015084064565598965,
            0.011612036265432835,
            0.028288407251238823,
            -0.03811924532055855,
            0.01842266507446766,
            0.0425511859357357,
            -0.015072165057063103,
            0.006117095705121756,
            -0.037348419427871704
        ],
        [
            -0.018699616193771362,
            0.001245944993570447,
            0.03389382362365723,
            0.044212762266397476,
            -0.05952616408467293,
            0.0014524011639878154,
            -0.0099330460652709,
            0.004596530459821224,
            -0.001222704304382205,
            -0.006412365473806858
        ],
        [
            -0.06871643662452698,
            0.086516834795475,
            0.04219350963830948,
            0.048376813530921936,
            -0.11336876451969147,
            0.04654810577630997,
            0.03725258260965347,
            0.0051413788460195065,
            -0.039880190044641495,
            -0.056879106909036636
        ],
        [
            -0.01452167984098196,
            0.01918485015630722,
            0.03856539726257324,
            0.042473629117012024,
            -0.06636650860309601,
            0.006992252543568611,
            0.04207776486873627,
            -0.01671908050775528,
            0.005040796007961035,
            -0.035390276461839676
        ],
        [
            -0.007346630562096834,
            0.023588351905345917,
            0.04634784907102585,
            0.04897681623697281,
            -0.09004326909780502,
            0.017898399382829666,
            0.03510318696498871,
            -0.022256359457969666,
            0.01737499237060547,
            -0.04615193232893944
        ],
        [
            -0.015249577350914478,
            0.032537564635276794,
            0.07135121524333954,
            0.06666485965251923,
            -0.12851408123970032,
            0.02011207863688469,
            0.06989926844835281,
            -0.03178445249795914,
            0.011525947600603104,
            -0.08315622806549072
        ],
        [
            -0.006792406085878611,
            -0.005195274483412504,
            0.01734953559935093,
            -0.005918876733630896,
            -0.05424314737319946,
            -0.010274405591189861,
            0.11507756263017654,
            -0.025871213525533676,
            0.004116394091397524,
            -0.0343405082821846
        ],
        [
            -0.006226922385394573,
            0.025076892226934433,
            0.040265042334795,
            0.03825678676366806,
            -0.08150162547826767,
            0.021176762878894806,
            0.029461409896612167,
            -0.02081548050045967,
            0.021079692989587784,
            -0.039605773985385895
        ],
        [
            -0.008680364117026329,
            0.02899543195962906,
            0.03708704188466072,
            0.049712177366018295,
            -0.07980097085237503,
            0.00616543460637331,
            0.04649149999022484,
            -0.018571872264146805,
            0.006591919809579849,
            -0.0556524284183979
        ],
        [
            -0.02218661643564701,
            -0.015207817777991295,
            0.0852527990937233,
            0.0708107054233551,
            -0.03690815716981888,
            -0.014595886692404747,
            -0.0574677549302578,
            -0.01114480197429657,
            0.0005962570430710912,
            -0.007709996309131384
        ],
        [
            -0.06349228322505951,
            0.061084143817424774,
            0.05225153639912605,
            0.03644922748208046,
            -0.0992407351732254,
            0.028309941291809082,
            0.08478373289108276,
            -0.0037434310652315617,
            -0.053730789572000504,
            -0.05808290094137192
        ],
        [
            0.002704474376514554,
            0.00987095758318901,
            0.0471370592713356,
            0.06983627378940582,
            -0.04950512573122978,
            -0.0039795576594769955,
            0.02452816255390644,
            -0.019176339730620384,
            0.004843642003834248,
            -0.048109836876392365
        ],
        [
            0.007344220764935017,
            0.02490844391286373,
            0.0555887334048748,
            0.06812272220849991,
            -0.08609391003847122,
            0.016963446512818336,
            0.02033129893243313,
            -0.02516728639602661,
            0.024984968826174736,
            -0.04639577493071556
        ],
        [
            0.01036616787314415,
            0.029167478904128075,
            0.0804017037153244,
            0.09157442301511765,
            -0.13263936340808868,
            0.018051916733384132,
            0.04326190799474716,
            -0.03735283389687538,
            0.02780613675713539,
            -0.08388879150152206
        ],
        [
            -0.03652864694595337,
            0.01925317570567131,
            0.008675362914800644,
            0.028841810300946236,
            -0.12158899009227753,
            -0.0238986574113369,
            0.23473773896694183,
            -0.020218053832650185,
            -0.0354122668504715,
            -0.07352615147829056
        ],
        [
            0.010433650575578213,
            0.025555359199643135,
            0.0446886382997036,
            0.05967223271727562,
            -0.07347732782363892,
            0.01810513623058796,
            0.01487715169787407,
            -0.022708710283041,
            0.024745991453528404,
            -0.03860095888376236
        ],
        [
            0.019820908084511757,
            0.024099327623844147,
            0.03358504921197891,
            0.04961772263050079,
            -0.06267472356557846,
            0.010848084464669228,
            0.020929167047142982,
            -0.019117625430226326,
            0.029418952763080597,
            -0.044040944427251816
        ],
        [
            -0.017461447045207024,
            -0.01233304850757122,
            0.0790412425994873,
            0.07421501725912094,
            -0.056401897221803665,
            0.008607471361756325,
            -0.048732757568359375,
            -0.002646140055730939,
            -0.014096498489379883,
            -0.009983586147427559
        ],
        [
            -0.080744169652462,
            0.11409132182598114,
            0.010734204202890396,
            0.021421927958726883,
            -0.08085393160581589,
            0.03754182532429695,
            0.12335085868835449,
            0.00541292130947113,
            -0.08594223111867905,
            -0.07242300361394882
        ],
        [
            0.01722172647714615,
            0.01956256479024887,
            0.06821701675653458,
            0.05426822230219841,
            -0.05424794182181358,
            0.015912046656012535,
            0.018302064388990402,
            -0.02135319449007511,
            -0.009528354741632938,
            -0.059604939073324203
        ],
        [
            0.0241562407463789,
            0.01808636076748371,
            0.074972964823246,
            0.06769105046987534,
            -0.080991730093956,
            0.027902547270059586,
            0.005261552054435015,
            -0.027384096756577492,
            0.01420032698661089,
            -0.05676417052745819
        ],
        [
            0.043016377836465836,
            0.018519090488553047,
            0.10385416448116302,
            0.07415854930877686,
            -0.11889666318893433,
            0.03652229160070419,
            0.03131500259041786,
            -0.04723542928695679,
            0.005297924391925335,
            -0.10972910374403
        ],
        [
            -0.05586361885070801,
            0.017168615013360977,
            0.002259956207126379,
            0.03388921543955803,
            -0.070124551653862,
            -0.030151374638080597,
            0.279937207698822,
            -0.043138232082128525,
            -0.04525389522314072,
            -0.07945693284273148
        ],
        [
            0.028432920575141907,
            0.017223643139004707,
            0.06270157545804977,
            0.048983752727508545,
            -0.06509847939014435,
            0.030307382345199585,
            -0.004109695088118315,
            -0.024542568251490593,
            0.01627941057085991,
            -0.0482570044696331
        ],
        [
            0.0313001424074173,
            0.022091802209615707,
            0.04315819963812828,
            0.043648432940244675,
            -0.06030036881566048,
            0.03383135423064232,
            0.03556811064481735,
            -0.030382506549358368,
            0.012480701319873333,
            -0.06580386310815811
        ],
        [
            -0.025394191965460777,
            -0.01679365336894989,
            0.05047924444079399,
            0.07132050395011902,
            -0.08520949631929398,
            -0.0035000459756702185,
            0.007167343515902758,
            0.0069342441856861115,
            -0.009181785397231579,
            -0.010716279968619347
        ],
        [
            -0.05520252510905266,
            0.06812791526317596,
            0.007817781530320644,
            0.006054492201656103,
            -0.06310319900512695,
            0.025984706357121468,
            0.09025818109512329,
            0.0031638462096452713,
            -0.05346197634935379,
            -0.05612162500619888
        ],
        [
            0.015862584114074707,
            0.01734555885195732,
            0.05851360037922859,
            0.06848637014627457,
            -0.06854328513145447,
            0.018629809841513634,
            0.01493788417428732,
            -0.02178802713751793,
            -0.0011336361058056355,
            -0.066173255443573
        ],
        [
            0.02274794690310955,
            0.03601261228322983,
            0.06263113021850586,
            0.06804050505161285,
            -0.10642020404338837,
            0.037496417760849,
            0.010363483801484108,
            -0.028001487255096436,
            0.006454449612647295,
            -0.05945906788110733
        ],
        [
            0.027534224092960358,
            0.035688068717718124,
            0.061715658754110336,
            0.09759082645177841,
            -0.1183028519153595,
            0.03251032531261444,
            0.03498692438006401,
            -0.0464986190199852,
            0.017834166064858437,
            -0.11498817801475525
        ],
        [
            -0.022413238883018494,
            0.03420701250433922,
            0.002635922282934189,
            0.0148005411028862,
            -0.07399694621562958,
            -0.04701681062579155,
            0.30141162872314453,
            -0.024584533646702766,
            -0.07415272295475006,
            -0.09826390445232391
        ],
        [
            0.0297286007553339,
            0.03625243902206421,
            0.05840433016419411,
            0.06889224797487259,
            -0.09271091967821121,
            0.030436037108302116,
            -0.00663257809355855,
            -0.026517607271671295,
            0.015836911275982857,
            -0.05455213040113449
        ],
        [
            0.01362448651343584,
            0.019977886229753494,
            0.035688407719135284,
            0.049929384142160416,
            -0.05392086133360863,
            0.015392182394862175,
            0.041137754917144775,
            -0.02450067736208439,
            0.030574118718504906,
            -0.06463466584682465
        ],
        [
            -0.04369343817234039,
            -0.0013062377693131566,
            0.041048869490623474,
            0.01999448984861374,
            -0.06992781907320023,
            0.04049277305603027,
            0.030880816280841827,
            0.009407750330865383,
            -0.025031941011548042,
            -0.0024174759164452553
        ],
        [
            -0.08167602121829987,
            0.10106492042541504,
            0.007865454070270061,
            -0.012076660990715027,
            -0.030963895842432976,
            0.0490451455116272,
            0.08832330256700516,
            0.006245980970561504,
            -0.08038784563541412,
            -0.05446895211935043
        ],
        [
            -0.015218298882246017,
            -0.019995713606476784,
            0.04291415959596634,
            0.06929764151573181,
            -0.05602119863033295,
            0.034264326095581055,
            0.027014723047614098,
            -0.026879025623202324,
            0.00909413956105709,
            -0.0587962344288826
        ],
        [
            0.01823398843407631,
            -0.006374126300215721,
            0.06228385493159294,
            0.08359823375940323,
            -0.10603716224431992,
            0.03557877615094185,
            0.0001037079346133396,
            -0.03265607729554176,
            0.018227659165859222,
            -0.0635211244225502
        ],
        [
            0.02145436219871044,
            -0.011407329700887203,
            0.0442485436797142,
            0.09273252636194229,
            -0.12384845316410065,
            0.0438946895301342,
            0.04197557643055916,
            -0.05922393500804901,
            0.034955646842718124,
            -0.11768922954797745
        ],
        [
            -0.04658405855298042,
            0.05191288888454437,
            -0.004530798178166151,
            -0.08178076893091202,
            -0.05965876206755638,
            0.043546710163354874,
            0.28009575605392456,
            -0.021655132994055748,
            -0.06723365932703018,
            -0.10781482607126236
        ],
        [
            0.022379381582140923,
            -0.002728907624259591,
            0.04701585695147514,
            0.08456669747829437,
            -0.09333182126283646,
            0.03588537126779556,
            -0.012103814631700516,
            -0.033519212156534195,
            0.025266127660870552,
            -0.060281749814748764
        ],
        [
            0.018196644261479378,
            -0.01652916707098484,
            0.009405353106558323,
            0.06913679838180542,
            -0.06968595832586288,
            0.025741292163729668,
            0.04954410344362259,
            -0.03924025222659111,
            0.032177187502384186,
            -0.07808347046375275
        ],
        [
            -0.028532585129141808,
            -0.01774570718407631,
            0.014286724850535393,
            0.00426036911085248,
            -0.057852450758218765,
            0.03173450753092766,
            0.0386221781373024,
            0.010502741672098637,
            0.0003565389779396355,
            0.00013487212709151208
        ],
        [
            -0.05620269849896431,
            0.07508226484060287,
            0.011220483109354973,
            0.0024801702238619328,
            -0.030807487666606903,
            0.055719636380672455,
            0.007806621957570314,
            0.017509620636701584,
            -0.07796015590429306,
            -0.01438005268573761
        ],
        [
            0.007892473600804806,
            -0.004385646898299456,
            0.037258077412843704,
            0.03687659278512001,
            -0.04392768070101738,
            0.03348059952259064,
            0.013967379927635193,
            -0.021760066971182823,
            -0.002829398261383176,
            -0.04131833091378212
        ],
        [
            0.018920879811048508,
            -0.0004821369075216353,
            0.053361475467681885,
            0.07155138999223709,
            -0.07017694413661957,
            0.030157294124364853,
            -0.010061892680823803,
            -0.03297379985451698,
            0.011333000846207142,
            -0.05341479182243347
        ],
        [
            0.027361497282981873,
            0.008259817026555538,
            0.06100470572710037,
            0.07581722736358643,
            -0.07861928641796112,
            0.04524395614862442,
            0.002720811404287815,
            -0.056918613612651825,
            0.016413938254117966,
            -0.10152707248926163
        ],
        [
            -0.08071590214967728,
            -0.035365503281354904,
            -0.00801202841103077,
            -0.0379236675798893,
            -0.0214005708694458,
            0.06659377366304398,
            0.2319096177816391,
            -0.028987854719161987,
            -0.017638010904192924,
            -0.08525142073631287
        ],
        [
            0.02487410604953766,
            0.0019463349599391222,
            0.041333507746458054,
            0.07246170192956924,
            -0.05464938282966614,
            0.0225429255515337,
            -0.022959312424063683,
            -0.03273366764187813,
            0.01863652840256691,
            -0.05061396583914757
        ],
        [
            0.03579317033290863,
            0.012075779028236866,
            0.02066066488623619,
            0.03604276850819588,
            -0.04488587751984596,
            0.025799080729484558,
            0.01383882574737072,
            -0.03870752453804016,
            0.011446133255958557,
            -0.06338779628276825
        ],
        [
            -0.017946140840649605,
            0.005449420772492886,
            -0.015829669311642647,
            -0.0025055049918591976,
            -0.032681163400411606,
            0.04423626884818077,
            0.020955219864845276,
            0.009920397773385048,
            -0.012260972522199154,
            0.0007898607291281223
        ],
        [
            -0.07668924331665039,
            0.06783688813447952,
            0.018802708014845848,
            0.026980537921190262,
            -0.03788150101900101,
            0.031349293887615204,
            -0.006424332968890667,
            0.03093404695391655,
            -0.061445754021406174,
            -0.009131482802331448
        ],
        [
            0.007014408241957426,
            0.0051422882825136185,
            0.011256175115704536,
            0.011105827055871487,
            -0.03171894699335098,
            0.03653274476528168,
            0.02015397697687149,
            -0.010815738700330257,
            -0.026042943820357323,
            -0.020301416516304016
        ],
        [
            0.024863336235284805,
            0.009584445506334305,
            0.023307716473937035,
            0.023394722491502762,
            -0.044053129851818085,
            0.03476647287607193,
            0.005405956879258156,
            -0.020269377157092094,
            -0.01770363748073578,
            -0.023623324930667877
        ],
        [
            0.027343813329935074,
            0.01769227348268032,
            0.029580133035779,
            0.015258533880114555,
            -0.042485978454351425,
            0.06014249101281166,
            0.011632860638201237,
            -0.04117761552333832,
            -0.01841244287788868,
            -0.049183569848537445
        ],
        [
            0.011056161485612392,
            -0.013051849789917469,
            -0.003127499483525753,
            -0.027155231684446335,
            -0.03244295343756676,
            0.06554373353719711,
            0.12262231111526489,
            -0.0326077900826931,
            -0.03060155175626278,
            -0.06256953626871109
        ],
        [
            0.01783587597310543,
            0.009684969671070576,
            0.01938890479505062,
            0.020694147795438766,
            -0.03351569175720215,
            0.035670045763254166,
            0.0009370011975988746,
            -0.020045004785060883,
            -0.01590694673359394,
            -0.02041291445493698
        ],
        [
            0.01611834391951561,
            0.013662061654031277,
            0.005838415119796991,
            -0.009206922724843025,
            -0.011049279011785984,
            0.03395897150039673,
            0.012007016688585281,
            -0.026362042874097824,
            0.0009403675212524831,
            -0.02745228447020054
        ],
        [
            -0.018593067303299904,
            0.008256376720964909,
            0.008828112855553627,
            -0.0006341189728118479,
            -0.026686260476708412,
            0.027613813057541847,
            0.002374808769673109,
            0.008219489827752113,
            -0.013806767761707306,
            -0.0011052069021388888
        ],
        [
            -0.07246722280979156,
            0.0642552375793457,
            0.0283049289137125,
            0.028660323470830917,
            -0.062347445636987686,
            0.04046504572033882,
            -0.02904669940471649,
            0.031193245202302933,
            -0.03464346006512642,
            -0.004141273442655802
        ],
        [
            0.01191234216094017,
            2.1366098735597916e-05,
            0.01675865612924099,
            -0.004451577551662922,
            -0.03320354223251343,
            0.013229168951511383,
            0.016368288546800613,
            -0.0033515687100589275,
            -0.01139767561107874,
            -0.006570119876414537
        ],
        [
            0.012778498232364655,
            -0.004239347297698259,
            -0.005107326433062553,
            -0.011915831826627254,
            -0.024348458275198936,
            0.027614865452051163,
            0.023164015263319016,
            -0.018655899912118912,
            0.00010195848881267011,
            -0.008344326168298721
        ],
        [
            0.008066811598837376,
            0.0007827477529644966,
            -0.00820872187614441,
            -0.011349238455295563,
            -0.03194833919405937,
            0.04929109290242195,
            0.029208505526185036,
            -0.030705634504556656,
            -0.0010985815897583961,
            -0.015122247859835625
        ],
        [
            -0.002765767043456435,
            0.0011753566795960069,
            -0.01058768481016159,
            0.003404978197067976,
            -0.014216366223990917,
            0.05553833022713661,
            0.05066986754536629,
            -0.0050887749530375,
            -0.04831883683800697,
            -0.01754886470735073
        ],
        [
            0.012243512086570263,
            -0.004275784362107515,
            -0.002009596675634384,
            -0.011055735871195793,
            -0.025625456124544144,
            0.02372806705534458,
            0.025039067491889,
            -0.01779460348188877,
            -0.001496513606980443,
            -0.008870435878634453
        ],
        [
            -0.006687822286039591,
            -0.001366069889627397,
            -0.012546108104288578,
            -0.011936452239751816,
            -0.006941620260477066,
            0.020644696429371834,
            0.029494043439626694,
            -0.028598085045814514,
            0.013161399401724339,
            -0.0020826279651373625
        ],
        [
            -0.012918573804199696,
            0.008937457576394081,
            0.005769318901002407,
            0.005613390821963549,
            -0.01719631999731064,
            0.011102763935923576,
            -0.0027751971501857042,
            0.00636084470897913,
            -0.009070675820112228,
            -0.0016618228983134031
        ],
        [
            -0.06763435900211334,
            0.059777650982141495,
            0.034174297004938126,
            0.03353548049926758,
            -0.06390402466058731,
            0.035712651908397675,
            -0.03472018614411354,
            0.027499306946992874,
            -0.03503868728876114,
            -0.007846571505069733
        ],
        [
            -0.0019214528147131205,
            -0.00020476100326050073,
            0.012759058736264706,
            0.010403472930192947,
            -0.017491979524493217,
            0.007598652504384518,
            0.0010318804997950792,
            -0.001315391156822443,
            -0.0006381099810823798,
            -0.000766594079323113
        ],
        [
            -0.0029103492852300406,
            -0.000932410650420934,
            -0.0012078523868694901,
            -0.000729515915736556,
            -0.011501966044306755,
            0.007960725575685501,
            0.014898443594574928,
            -0.002976619405671954,
            0.0043345969170331955,
            -0.004629882518202066
        ],
        [
            -0.0076086195185780525,
            -0.0024132898543030024,
            -0.009074282832443714,
            -0.008757593110203743,
            -0.01765463314950466,
            0.021592572331428528,
            0.02737605758011341,
            -0.006621598731726408,
            0.004430798813700676,
            -0.009008033201098442
        ],
        [
            0.008749016560614109,
            -0.004710009787231684,
            0.013203090056777,
            -0.004753544926643372,
            -0.027781682088971138,
            0.003753355937078595,
            0.02557206153869629,
            -0.008480899035930634,
            0.00584100466221571,
            -0.0066606695763766766
        ],
        [
            -0.004299819469451904,
            -0.0001933034509420395,
            0.0017696706345304847,
            0.0018849453190341592,
            -0.01251702569425106,
            0.006385276559740305,
            0.0116837527602911,
            -0.002699670847505331,
            0.004695022478699684,
            -0.004557856824249029
        ],
        [
            -0.007324049714952707,
            -0.001884113415144384,
            -0.014558061957359314,
            -0.006756418384611607,
            -0.0025481979828327894,
            0.011964256875216961,
            0.02297961339354515,
            -0.005050398409366608,
            0.005327335558831692,
            -0.008124168030917645
        ],
        [
            -0.010116524994373322,
            0.010488644242286682,
            0.003139594104140997,
            0.0054934085346758366,
            -0.01663767173886299,
            0.01210002601146698,
            -0.0043546580709517,
            0.007884745486080647,
            -0.008552058599889278,
            -0.003224058309569955
        ],
        [
            -0.0738065093755722,
            0.060078367590904236,
            0.030222520232200623,
            0.041107889264822006,
            -0.06289071589708328,
            0.050601694732904434,
            -0.02362573891878128,
            0.02409208193421364,
            -0.035755038261413574,
            -0.021819941699504852
        ],
        [
            0.0006334165227599442,
            -1.1609165539994137e-06,
            -0.002011848846450448,
            -0.0006264146068133414,
            0.017157692462205887,
            -0.001579944626428187,
            0.0003425078757572919,
            0.005140984896570444,
            -0.009299559518694878,
            -0.012090113013982773
        ],
        [
            -9.477415005676448e-05,
            3.297125203971518e-06,
            -0.002242481801658869,
            -0.0012951702810823917,
            0.01669900305569172,
            -0.0012053644750267267,
            0.00022384151816368103,
            0.0053352732211351395,
            -0.007659154012799263,
            -0.01042868196964264
        ],
        [
            0.0009249408612959087,
            -0.00015601873747073114,
            -0.00602694833651185,
            -0.0009122414048761129,
            0.012878935784101486,
            -0.0022185605484992266,
            0.0018010305939242244,
            0.016757193952798843,
            -0.009614186361432076,
            -0.008526153862476349
        ],
        [
            0.00024395780928898603,
            -1.3455789940053364e-06,
            -2.058642712654546e-05,
            0.0001872272987384349,
            -0.00015738996444270015,
            7.963091775309294e-06,
            -0.0005287342355586588,
            3.114584251306951e-05,
            -0.0001493489253334701,
            -1.0694525371945929e-05
        ],
        [
            -8.313365833600983e-05,
            -4.0327506667381385e-08,
            -0.0025301568675786257,
            -0.0012305339332669973,
            0.013714995235204697,
            -0.0011238987790420651,
            5.918881288380362e-05,
            0.006306236144155264,
            -0.005863203201442957,
            -0.008878069929778576
        ],
        [
            0.0016009239479899406,
            -1.4012137398822233e-05,
            -0.003470140742138028,
            -0.0014614555984735489,
            0.015824591740965843,
            -0.002333409385755658,
            0.0008395371260121465,
            0.014003442600369453,
            -0.009237173944711685,
            -0.011407991871237755
        ],
        [
            -0.015621164813637733,
            0.019884994253516197,
            0.00484244991093874,
            0.007185341324657202,
            -0.02273339219391346,
            0.020429635420441628,
            -0.0037352489307522774,
            0.0050193071365356445,
            -0.011973702348768711,
            -0.0038282445166260004
        ],
        [
            -0.07441393285989761,
            0.05633026733994484,
            0.0389803908765316,
            0.029461262747645378,
            -0.08858009427785873,
            0.06888026744127274,
            -0.008408398367464542,
            0.02816307730972767,
            -0.03338334709405899,
            -0.03161470592021942
        ],
        [
            -0.001604500925168395,
            0.008338076993823051,
            0.004461811389774084,
            0.001516568474471569,
            -0.009653295390307903,
            0.0051456354558467865,
            0.013938604854047298,
            0.014988571405410767,
            -0.011161917820572853,
            -0.015709254890680313
        ],
        [
            -0.0038879469502717257,
            0.002489255042746663,
            0.010090637020766735,
            0.0027815583162009716,
            -0.0024109501391649246,
            0.0009210262796841562,
            0.014848947525024414,
            0.01777413673698902,
            -0.017220253124833107,
            -0.021691249683499336
        ],
        [
            -0.01062046829611063,
            0.008278656750917435,
            0.013221966102719307,
            0.01390424370765686,
            -0.015346304513514042,
            -0.001208367757499218,
            0.02010195516049862,
            0.023056654259562492,
            -0.022770073264837265,
            -0.02451428584754467
        ],
        [
            0.009756379760801792,
            -8.564933864363411e-07,
            0.0002193221589550376,
            -0.0017113623907789588,
            -0.009272980503737926,
            2.1851181372767314e-05,
            0.007644033525139093,
            0.0007182834669947624,
            -9.22225444810465e-05,
            -0.0008537072571925819
        ],
        [
            -0.00270450534299016,
            -0.00016248240717686713,
            0.013885030522942543,
            0.0027725244872272015,
            0.0006530153914354742,
            -0.0009720553061924875,
            0.01143221277743578,
            0.012583617120981216,
            -0.014911714009940624,
            -0.02094033546745777
        ],
        [
            -0.006028352305293083,
            0.005967185832560062,
            0.012790395878255367,
            0.004836421925574541,
            -0.01690085045993328,
            0.0033920975401997566,
            0.01588117890059948,
            0.018322451040148735,
            -0.014810185879468918,
            -0.016181042417883873
        ],
        [
            -0.02583741582930088,
            0.022079266607761383,
            0.03976916894316673,
            0.05465494468808174,
            -0.023121442645788193,
            0.0132469292730093,
            -0.042045895010232925,
            0.0002938959514722228,
            -0.024486882612109184,
            -0.011223369278013706
        ],
        [
            -0.06995595991611481,
            0.041327103972435,
            0.032704390585422516,
            0.022178050130605698,
            -0.08504961431026459,
            0.08040329068899155,
            0.022549660876393318,
            0.02232707105576992,
            -0.024356691166758537,
            -0.046117011457681656
        ],
        [
            -0.0004957708297297359,
            0.008413722738623619,
            0.004723122343420982,
            0.014507881365716457,
            -0.024594439193606377,
            0.021052982658147812,
            0.03108145482838154,
            0.0064065055921673775,
            -0.014358925633132458,
            -0.025046665221452713
        ],
        [
            0.001595681649632752,
            0.006905209273099899,
            0.012485080398619175,
            0.008161647245287895,
            -0.0357694998383522,
            0.014485769905149937,
            0.035477425903081894,
            0.013084325939416885,
            -0.0029764031060039997,
            -0.029460031539201736
        ],
        [
            -0.0012020075228065252,
            -0.00305183045566082,
            0.01551883015781641,
            0.021186646074056625,
            -0.04001963883638382,
            0.020431429147720337,
            0.04619917273521423,
            0.030526280403137207,
            -0.01852918416261673,
            -0.05216863378882408
        ],
        [
            -0.009339360520243645,
            -0.002064069965854287,
            0.02241538278758526,
            -0.011398548260331154,
            0.002100998302921653,
            -0.0014575248351320624,
            0.010558916255831718,
            0.009200545959174633,
            -0.0007838535238988698,
            -0.010303912684321404
        ],
        [
            0.0038853734731674194,
            -0.0004183576093055308,
            0.002851407043635845,
            0.005499810911715031,
            -0.026796935126185417,
            0.014266869984567165,
            0.032919254153966904,
            0.010826078243553638,
            0.0005688614910468459,
            -0.024282174184918404
        ],
        [
            0.009790507145226002,
            -0.0063223266042768955,
            0.012200304307043552,
            0.01118713989853859,
            -0.011488602496683598,
            0.01058925874531269,
            0.028408020734786987,
            0.018826892599463463,
            -0.012549213133752346,
            -0.038241978734731674
        ],
        [
            -0.025927718728780746,
            -0.0007816644501872361,
            0.0821361169219017,
            0.13321828842163086,
            -0.039941634982824326,
            -0.012242394499480724,
            -0.10792344808578491,
            -0.0015200272900983691,
            -0.027448847889900208,
            -0.014083084650337696
        ],
        [
            -0.05444071441888809,
            0.10092928260564804,
            -0.0043589286506175995,
            0.003197256475687027,
            -0.08039060235023499,
            0.05400433763861656,
            0.0487045980989933,
            0.0077591887675225735,
            -0.028044413775205612,
            -0.07010901719331741
        ],
        [
            -0.0018219155026599765,
            0.0023751617409288883,
            0.020110877230763435,
            0.010569103062152863,
            -0.04154236242175102,
            0.02800729312002659,
            0.03743322566151619,
            0.009750762023031712,
            -0.005284969229251146,
            -0.048327960073947906
        ],
        [
            -0.0013777585700154305,
            -0.007062237709760666,
            0.00091088394401595,
            -0.0043438090942800045,
            -0.056375350803136826,
            0.04513808339834213,
            0.05064735934138298,
            0.01607857458293438,
            0.016065292060375214,
            -0.041273441165685654
        ],
        [
            -0.013473432511091232,
            -0.02621535211801529,
            0.015221633948385715,
            0.014806129038333893,
            -0.060314469039440155,
            0.053330957889556885,
            0.06319789588451385,
            0.014587999321520329,
            0.01502656377851963,
            -0.08362806588411331
        ],
        [
            -0.006943567655980587,
            0.010930008254945278,
            -0.012467918917536736,
            0.021640080958604813,
            -0.045199885964393616,
            -0.015427148900926113,
            0.11934591829776764,
            -0.034368839114904404,
            0.0008544534211978316,
            -0.030040549114346504
        ],
        [
            -0.001960321329534054,
            -0.009067617356777191,
            -0.002548330230638385,
            -0.009844198822975159,
            -0.04475106671452522,
            0.043191097676754,
            0.04849545657634735,
            0.020306900143623352,
            0.014163454994559288,
            -0.036763980984687805
        ],
        [
            -0.005662214010953903,
            -0.022846387699246407,
            0.0011326229432597756,
            -0.005086265970021486,
            -0.02969849854707718,
            0.0388934463262558,
            0.04323454573750496,
            0.012646233662962914,
            0.020702579990029335,
            -0.05312849208712578
        ],
        [
            -0.03942500799894333,
            -0.032322194427251816,
            0.11744686961174011,
            0.18750648200511932,
            -0.056942325085401535,
            -0.050630055367946625,
            -0.18150438368320465,
            0.035590436309576035,
            0.013977953232824802,
            -0.01975986734032631
        ],
        [
            -0.045029547065496445,
            0.11321109533309937,
            0.015853533521294594,
            0.014930414967238903,
            -0.06640607118606567,
            0.0599212720990181,
            0.06847361475229263,
            -0.01586778275668621,
            -0.08657699823379517,
            -0.08354254066944122
        ],
        [
            0.012713182717561722,
            0.020459767431020737,
            0.03197479993104935,
            0.020515574142336845,
            -0.0474977046251297,
            0.03330358862876892,
            -0.004536880180239677,
            -0.002250764984637499,
            0.0011234094854444265,
            -0.06014882028102875
        ],
        [
            0.025565985590219498,
            0.02856508083641529,
            -0.0032996644731611013,
            -0.011134831234812737,
            -0.07364419847726822,
            0.05427555367350578,
            0.003558916039764881,
            0.007181484717875719,
            0.020285923033952713,
            -0.047853317111730576
        ],
        [
            0.0010696409735828638,
            0.03338249400258064,
            0.02374652959406376,
            0.028527503833174706,
            -0.07191254943609238,
            0.05780444294214249,
            0.028052784502506256,
            0.005220011807978153,
            0.021492313593626022,
            -0.09532607346773148
        ],
        [
            -0.02421368844807148,
            0.014837427996098995,
            0.024256935343146324,
            0.02418653294444084,
            -0.058280423283576965,
            -0.029316436499357224,
            0.2246970683336258,
            -0.061630260199308395,
            -0.023408735170960426,
            -0.11080287396907806
        ],
        [
            0.029563449323177338,
            0.029488714411854744,
            -0.003149427007883787,
            -0.01823824644088745,
            -0.05320357903838158,
            0.05400196462869644,
            -0.0016152020543813705,
            0.007199017331004143,
            0.012803524732589722,
            -0.041393693536520004
        ],
        [
            0.0037733465433120728,
            0.01936827041208744,
            0.02050177939236164,
            0.007893961854279041,
            -0.022348064929246902,
            0.03230898827314377,
            -0.0004180941032245755,
            0.00951223075389862,
            0.01290927641093731,
            -0.056685175746679306
        ],
        [
            -0.046958282589912415,
            -0.09407338500022888,
            0.15024618804454803,
            0.2397090196609497,
            -0.10739055275917053,
            -0.041117627173662186,
            -0.20146694779396057,
            0.015392547473311424,
            0.06355895102024078,
            -0.006581224035471678
        ],
        [
            -0.06782171130180359,
            0.13277077674865723,
            0.022879060357809067,
            -0.005543008912354708,
            0.005089933518320322,
            0.016211669892072678,
            0.1374223232269287,
            -0.06124059483408928,
            -0.10313420742750168,
            -0.11550531536340714
        ],
        [
            0.015439399518072605,
            0.020611140877008438,
            0.030471274629235268,
            0.03813254088163376,
            -0.058511942625045776,
            0.034015268087387085,
            -0.034630533307790756,
            -0.009713234379887581,
            0.006892979610711336,
            -0.03891916573047638
        ],
        [
            0.040156323462724686,
            0.035776395350694656,
            0.033881962299346924,
            -0.0037410426884889603,
            -0.08912214636802673,
            0.06650038808584213,
            -0.05163281783461571,
            -0.00020281135221011937,
            0.018867598846554756,
            -0.030597040429711342
        ],
        [
            0.03603144362568855,
            0.014773502014577389,
            0.019640088081359863,
            0.040382854640483856,
            -0.11475683003664017,
            0.04217991605401039,
            -0.023038456216454506,
            -0.013425386510789394,
            0.01808968000113964,
            -0.06239679828286171
        ],
        [
            -0.05267433077096939,
            0.05338671803474426,
            -0.02663237228989601,
            -0.00883319228887558,
            -0.01840263232588768,
            -0.004887277726083994,
            0.3009195625782013,
            -0.08282268792390823,
            0.004664695356041193,
            -0.1583971530199051
        ],
        [
            0.046079061925411224,
            0.03335170820355415,
            0.008129844442009926,
            -0.003024767152965069,
            -0.07843656837940216,
            0.07534129172563553,
            -0.042148519307374954,
            0.0014518522657454014,
            -0.00862807035446167,
            -0.025888802483677864
        ],
        [
            0.008904529735445976,
            0.00010654973448254168,
            0.016106925904750824,
            0.01829063892364502,
            -0.05502920597791672,
            0.026201928034424782,
            0.010213620029389858,
            0.0014052275801077485,
            0.013476920314133167,
            -0.03314989432692528
        ],
        [
            -0.02292749285697937,
            -0.15322373807430267,
            0.178319051861763,
            0.1762412190437317,
            -0.14632587134838104,
            -0.007085460238158703,
            -0.2320527583360672,
            0.003215326461941004,
            0.1652437150478363,
            -0.03375296667218208
        ],
        [
            -0.04527151584625244,
            0.210988849401474,
            -0.0010204381542280316,
            -0.01511798333376646,
            0.053017646074295044,
            -0.03459286317229271,
            0.17522676289081573,
            -0.0863671526312828,
            -0.1192854568362236,
            -0.14975614845752716
        ],
        [
            0.019001835957169533,
            0.007840394973754883,
            0.027184030041098595,
            0.06102696433663368,
            -0.047885626554489136,
            0.03327349200844765,
            -0.06839919090270996,
            -0.025271302089095116,
            0.020855024456977844,
            -0.03198018670082092
        ],
        [
            0.0404076874256134,
            0.04215661436319351,
            -0.003334653563797474,
            0.0032334662973880768,
            -0.06955907493829727,
            0.07075602561235428,
            -0.08537124842405319,
            -0.0051833451725542545,
            0.006961213890463114,
            -0.02111910469830036
        ],
        [
            0.04111830145120621,
            0.02244218811392784,
            0.013343121856451035,
            0.03824857994914055,
            -0.06926024705171585,
            0.03814689442515373,
            -0.0411088764667511,
            -0.037113338708877563,
            0.01671496406197548,
            -0.04069364443421364
        ],
        [
            -0.07204927504062653,
            0.06508049368858337,
            -0.029332567006349564,
            -0.03262756019830704,
            0.0158784631639719,
            -0.039746563881635666,
            0.40498077869415283,
            -0.14603449404239655,
            -0.030647560954093933,
            -0.1889357715845108
        ],
        [
            0.058076225221157074,
            0.04754520580172539,
            0.0103099774569273,
            0.00765260448679328,
            -0.05202620103955269,
            0.05484222248196602,
            -0.06485617160797119,
            -0.004388301633298397,
            0.0055638644844293594,
            -0.0008270827820524573
        ],
        [
            0.009239050559699535,
            0.009263268671929836,
            0.023350805044174194,
            0.025396570563316345,
            -0.04755914583802223,
            0.01840747892856598,
            0.01069191750138998,
            -0.011486790142953396,
            0.026379942893981934,
            -0.027013827115297318
        ],
        [
            -0.051728785037994385,
            -0.18303100764751434,
            0.11435981839895248,
            0.10434266924858093,
            -0.2403731793165207,
            0.09127861261367798,
            -0.11370711773633957,
            -0.018446944653987885,
            0.18315577507019043,
            0.04393507167696953
        ],
        [
            -0.025094442069530487,
            0.2011130154132843,
            0.007557681296020746,
            -0.03714060038328171,
            0.08415524661540985,
            -0.016636574640870094,
            0.1629965454339981,
            -0.0641610398888588,
            -0.16287095844745636,
            -0.16465362906455994
        ],
        [
            0.03633597120642662,
            0.019689952954649925,
            0.06435506045818329,
            0.07733097672462463,
            -0.06290823221206665,
            -0.009905322454869747,
            -0.07230130583047867,
            -0.020432500168681145,
            0.03511776030063629,
            -0.038857366889715195
        ],
        [
            0.05733433738350868,
            0.051384564489126205,
            0.019711745902895927,
            0.051948778331279755,
            -0.07199669629335403,
            0.0335974283516407,
            -0.0837862566113472,
            0.0071798404678702354,
            0.020300336182117462,
            -0.02661236934363842
        ],
        [
            0.06393199414014816,
            0.03848236799240112,
            0.03467131406068802,
            0.05123082175850868,
            -0.06970822811126709,
            0.03355836123228073,
            -0.037173785269260406,
            -0.03504094108939171,
            0.04160977900028229,
            -0.05193902924656868
        ],
        [
            -0.10498715192079544,
            0.09821044653654099,
            -0.06686851382255554,
            -0.08313646912574768,
            0.0968950167298317,
            0.004269796889275312,
            0.41196781396865845,
            -0.12018562108278275,
            -0.048258282244205475,
            -0.2047046720981598
        ],
        [
            0.056213028728961945,
            0.058638036251068115,
            0.014606456272304058,
            0.05784133821725845,
            -0.05810176208615303,
            0.012984341010451317,
            -0.08979310095310211,
            0.024697693064808846,
            -0.018389074131846428,
            -0.026680799201130867
        ],
        [
            0.042125869542360306,
            0.014854442328214645,
            -0.000566804432310164,
            0.03716307505965233,
            -0.05197484418749809,
            -0.005468135699629784,
            0.015592524781823158,
            -0.006113946437835693,
            0.01648886688053608,
            -0.03641136735677719
        ],
        [
            -0.056498877704143524,
            -0.16043786704540253,
            0.06627856940031052,
            -0.009735534898936749,
            -0.27031609416007996,
            0.16700243949890137,
            0.0004958420759066939,
            -0.03215542063117027,
            0.18228743970394135,
            0.01922232285141945
        ],
        [
            -0.05131339281797409,
            0.23622672259807587,
            0.036677099764347076,
            -0.04362053796648979,
            0.10028477013111115,
            0.0011533438228070736,
            0.119355209171772,
            -0.06788486987352371,
            -0.15948814153671265,
            -0.1652006208896637
        ],
        [
            0.03523239120841026,
            -0.0039949906058609486,
            0.04034768417477608,
            0.0773700401186943,
            -0.07873819768428802,
            0.004584045149385929,
            -0.05340583994984627,
            -0.045021094381809235,
            0.04978390783071518,
            -0.0293772853910923
        ],
        [
            0.07656719535589218,
            0.02843978814780712,
            0.04724542051553726,
            0.07321782410144806,
            -0.09174083173274994,
            -0.0301299300044775,
            -0.09760048985481262,
            -0.002166289836168289,
            7.806088251527399e-05,
            -0.017547447234392166
        ],
        [
            0.08296264708042145,
            0.021817699074745178,
            0.027338584885001183,
            0.08170610666275024,
            -0.07490921020507812,
            -0.009968494065105915,
            -0.05316188186407089,
            -0.03483903780579567,
            0.016022710129618645,
            -0.04608582332730293
        ],
        [
            -0.09036096185445786,
            0.13625365495681763,
            -0.0959174633026123,
            -0.17755581438541412,
            0.07997973263263702,
            0.08183718472719193,
            0.4263775050640106,
            -0.12046924233436584,
            -0.059055931866168976,
            -0.23162724077701569
        ],
        [
            0.05487619712948799,
            0.02207253687083721,
            0.0399133674800396,
            0.09936390072107315,
            -0.07145220041275024,
            -0.02945712022483349,
            -0.10361898690462112,
            0.005734547507017851,
            -0.0022879834286868572,
            0.0016370665980502963
        ],
        [
            -0.002593936398625374,
            -0.013877254910767078,
            -0.01611529104411602,
            0.01940203085541725,
            -0.03195502609014511,
            0.03568040579557419,
            0.03817002475261688,
            -0.016344834119081497,
            0.015333549119532108,
            -0.023337315768003464
        ],
        [
            -0.06864022463560104,
            -0.07204782962799072,
            -0.02884097211062908,
            -0.04101165011525154,
            -0.15676796436309814,
            0.2057548612356186,
            0.06029825285077095,
            -0.017147192731499672,
            0.09721755981445312,
            -0.02738405577838421
        ],
        [
            -0.036014921963214874,
            0.1605031043291092,
            0.010039414279162884,
            -0.0037386948242783546,
            0.09420938044786453,
            -0.0012883018935099244,
            0.06284122169017792,
            -0.04041155055165291,
            -0.15076369047164917,
            -0.10619936138391495
        ],
        [
            0.03427839279174805,
            0.008169661276042461,
            0.07301738113164902,
            0.04145851358771324,
            -0.06869885325431824,
            0.003685073461383581,
            -0.049764566123485565,
            -0.04330319166183472,
            0.0601862408220768,
            -0.052349090576171875
        ],
        [
            0.060842376202344894,
            0.023292262107133865,
            0.07482152432203293,
            0.09703666716814041,
            -0.09103319048881531,
            -0.04246055707335472,
            -0.10739878565073013,
            -0.017115823924541473,
            0.019324151799082756,
            -0.020853109657764435
        ],
        [
            0.037248317152261734,
            0.009592859074473381,
            0.07909565418958664,
            0.058421455323696136,
            -0.07091090828180313,
            -0.023090744391083717,
            -0.06001961603760719,
            -0.037851303815841675,
            0.03952736407518387,
            -0.0492677167057991
        ],
        [
            -0.10909891873598099,
            0.06650713831186295,
            -0.12123558670282364,
            -0.15251196920871735,
            0.1527743637561798,
            0.17793124914169312,
            0.3055752217769623,
            -0.09988342970609665,
            -0.06633364409208298,
            -0.20052282512187958
        ],
        [
            0.045152779668569565,
            0.02366580069065094,
            0.09266245365142822,
            0.08499099314212799,
            -0.09052465111017227,
            -0.057226233184337616,
            -0.09996488690376282,
            -0.010011530481278896,
            0.04133322089910507,
            -0.009685750119388103
        ],
        [
            0.013436521403491497,
            -0.002373009454458952,
            0.014434854499995708,
            0.006137915421277285,
            -0.022916076704859734,
            0.019253574311733246,
            0.031741540879011154,
            -0.01702563650906086,
            -0.008966055698692799,
            -0.03242029249668121
        ],
        [
            -0.042375095188617706,
            -0.025068340823054314,
            -0.06272600591182709,
            -0.1054583266377449,
            -0.08688612282276154,
            0.21136221289634705,
            0.10156943649053574,
            -0.014101436361670494,
            0.02975265309214592,
            -0.03382508084177971
        ],
        [
            -0.04367148131132126,
            0.11590009182691574,
            0.019011449068784714,
            0.03640437871217728,
            0.02200329303741455,
            0.014998144470155239,
            -0.005661207716912031,
            0.002902725012972951,
            -0.1099250391125679,
            -0.053950995206832886
        ],
        [
            0.031830739229917526,
            0.00820545107126236,
            0.03286191076040268,
            0.043946266174316406,
            -0.02847927436232567,
            0.01368640922009945,
            -0.017265716567635536,
            -0.041874777525663376,
            0.020834872499108315,
            -0.048668988049030304
        ],
        [
            0.053686074912548065,
            0.023972248658537865,
            0.06376023590564728,
            0.09053882956504822,
            -0.0576210543513298,
            -0.0535307303071022,
            -0.06237664446234703,
            -0.037874240428209305,
            0.020870711654424667,
            -0.03419296070933342
        ],
        [
            0.023511303588747978,
            0.016399459913372993,
            0.0441318079829216,
            0.08557591587305069,
            -0.04804567992687225,
            -0.018325375393033028,
            -0.041742462664842606,
            -0.05937774479389191,
            0.03630449250340462,
            -0.06368256360292435
        ],
        [
            -0.029905259609222412,
            0.027126550674438477,
            -0.055850591510534286,
            -0.11612514406442642,
            0.12125960737466812,
            0.13324430584907532,
            0.1808975338935852,
            -0.08664102107286453,
            -0.043224040418863297,
            -0.16539481282234192
        ],
        [
            0.04960520938038826,
            0.020411651581525803,
            0.05940006673336029,
            0.09285328537225723,
            -0.05536973103880882,
            -0.05104496702551842,
            -0.05824761837720871,
            -0.04056196287274361,
            0.023049937561154366,
            -0.026063939556479454
        ],
        [
            -0.023574253544211388,
            0.006472036708146334,
            -0.004447057377547026,
            0.02080138772726059,
            0.0024551590904593468,
            0.018180642277002335,
            0.04861125349998474,
            -0.03293132036924362,
            0.001779172569513321,
            -0.04876154288649559
        ],
        [
            -0.06421743333339691,
            0.0003506811917759478,
            -0.057142648845911026,
            -0.05803856998682022,
            -0.02728668786585331,
            0.15864330530166626,
            0.05399879068136215,
            0.007880553603172302,
            -0.012543024495244026,
            -0.019453680142760277
        ],
        [
            -0.06949035078287125,
            0.07617641240358353,
            0.034849826246500015,
            0.027430661022663116,
            -0.03506261110305786,
            0.02764812484383583,
            -0.0416434109210968,
            0.025446129962801933,
            -0.05260393023490906,
            -0.008358892053365707
        ],
        [
            0.008293327875435352,
            0.007569212466478348,
            0.004633103962987661,
            -0.0033024102449417114,
            -0.016331136226654053,
            0.032507143914699554,
            0.009910832159221172,
            -0.019077759236097336,
            0.014734059572219849,
            -0.030190816149115562
        ],
        [
            0.0330202691257,
            0.01265751849859953,
            0.021713418886065483,
            0.03858942911028862,
            -0.031396422535181046,
            0.005103656556457281,
            -0.012475818395614624,
            -0.03092622011899948,
            0.01389937661588192,
            -0.03872019797563553
        ],
        [
            0.035307787358760834,
            0.006657663732767105,
            0.015135581605136395,
            0.017386486753821373,
            -0.02053484134376049,
            0.027392225340008736,
            -0.014405683614313602,
            -0.04630459472537041,
            0.033607445657253265,
            -0.06661789864301682
        ],
        [
            -0.030618999153375626,
            0.010984105989336967,
            -0.03840791806578636,
            -0.0476086288690567,
            0.076512910425663,
            0.13602200150489807,
            0.059760626405477524,
            -0.037181299179792404,
            -0.04357743263244629,
            -0.08579669147729874
        ],
        [
            0.03188195824623108,
            0.009705250151455402,
            0.018279366195201874,
            0.03263186290860176,
            -0.030214525759220123,
            0.002255023689940572,
            -0.016750158742070198,
            -0.022296182811260223,
            0.019927840679883957,
            -0.035490166395902634
        ],
        [
            0.012300977483391762,
            0.007512673735618591,
            -0.014401590451598167,
            0.0003037639835383743,
            0.0003187523689121008,
            0.03236256167292595,
            0.014716998673975468,
            -0.028092574328184128,
            0.0219345074146986,
            -0.04340784624218941
        ],
        [
            -0.02865547686815262,
            0.009111619554460049,
            -0.021685829386115074,
            -0.0120810242369771,
            -0.02149665169417858,
            0.05664209648966789,
            0.03597850352525711,
            0.001031549647450447,
            -0.0136176198720932,
            -0.007731815800070763
        ],
        [
            -0.0706520602107048,
            0.06229489669203758,
            0.040378499776124954,
            0.03852273151278496,
            -0.06560129672288895,
            0.02673962526023388,
            -0.03232362121343613,
            0.031410057097673416,
            -0.04015486314892769,
            -0.0032534294296056032
        ],
        [
            -0.004041088744997978,
            0.004916654899716377,
            -0.0033362540416419506,
            -0.020363954827189445,
            -0.009816927835345268,
            0.03012891858816147,
            0.018122628331184387,
            -0.006786718498915434,
            0.006224148906767368,
            -0.012101581320166588
        ],
        [
            0.005419283173978329,
            0.021145757287740707,
            -0.005065876990556717,
            -0.018966469913721085,
            -0.021167118102312088,
            0.027552461251616478,
            0.006615201476961374,
            -0.007658499758690596,
            0.02499210275709629,
            -0.015800992026925087
        ],
        [
            0.005151834804564714,
            0.02220006287097931,
            -0.0075187101028859615,
            -0.03360503166913986,
            -0.0053602661937475204,
            0.05869225412607193,
            -0.00511976657435298,
            -0.020103763788938522,
            0.03648335486650467,
            -0.03277317062020302
        ],
        [
            -0.0061248308047652245,
            0.014808177947998047,
            -0.009559930302202702,
            -0.005354715045541525,
            -0.008366462774574757,
            0.046370331197977066,
            0.0423341765999794,
            -0.0346006378531456,
            -0.01004507951438427,
            -0.04108430817723274
        ],
        [
            0.00478884344920516,
            0.020797116681933403,
            0.0011598559794947505,
            -0.019174452871084213,
            -0.01965893805027008,
            0.02612360194325447,
            0.002458576811477542,
            -0.006285576615482569,
            0.02270442061126232,
            -0.015067409723997116
        ],
        [
            0.003228717017918825,
            0.019531553611159325,
            -0.0018127200892195106,
            -0.027156174182891846,
            0.0012003305600956082,
            0.038047030568122864,
            -0.006632132455706596,
            -0.006218451540917158,
            0.017022226005792618,
            -0.01935167796909809
        ],
        [
            -0.017682719975709915,
            0.009801979176700115,
            5.105800664750859e-05,
            0.025380045175552368,
            -0.01484697125852108,
            0.0006450467044487596,
            -0.0021766212303191423,
            0.011407986283302307,
            -0.00992454681545496,
            -0.006082737818360329
        ],
        [
            -0.07322388142347336,
            0.05785023793578148,
            0.03144734725356102,
            0.03827952221035957,
            -0.05797002464532852,
            0.05156317725777626,
            -0.026778120547533035,
            0.021083002910017967,
            -0.03292931988835335,
            -0.026111122220754623
        ],
        [
            0.00096048106206581,
            -0.0004610047035384923,
            -0.007215798366814852,
            0.0009728078730404377,
            0.012643643654882908,
            -0.004559132736176252,
            0.0024272268638014793,
            0.017037291079759598,
            -0.006817977409809828,
            -0.012525509111583233
        ],
        [
            -0.0003591834974940866,
            -8.122974395519122e-05,
            -0.012151973322033882,
            0.002817047294229269,
            0.014983064495027065,
            -0.0037165505345910788,
            0.0008713589631952345,
            0.018364742398262024,
            -0.007311402820050716,
            -0.011405483819544315
        ],
        [
            0.0007194505888037384,
            -0.00036368813016451895,
            -0.01769263483583927,
            0.013797995634377003,
            0.012548541650176048,
            -0.010183456353843212,
            0.005546418018639088,
            0.024048717692494392,
            -0.012810115702450275,
            -0.012591294012963772
        ],
        [
            1.6499805497005582e-05,
            -1.607318608876085e-06,
            -2.5011489924509078e-05,
            0.00018847214232664555,
            -0.0001553860493004322,
            2.1909538190811872e-05,
            6.858694541733712e-05,
            0.0001259747805306688,
            -0.00015086022904142737,
            -9.271846465708222e-06
        ],
        [
            -0.00038347073132172227,
            -0.00012362032430246472,
            -0.011949301697313786,
            0.006054596975445747,
            0.010620302520692348,
            -0.004892773926258087,
            0.002031903713941574,
            0.016659395769238472,
            -0.0063543072901666164,
            -0.00961590651422739
        ],
        [
            0.001964517869055271,
            -0.0006511772517114878,
            -0.008427021093666553,
            0.010943577624857426,
            0.011719890870153904,
            -0.00836892332881689,
            0.0036906874738633633,
            0.01317425724118948,
            -0.008208191022276878,
            -0.012170473113656044
        ],
        [
            -0.028520885854959488,
            0.0054690600372850895,
            0.04063015058636665,
            0.05422813445329666,
            -0.018277497962117195,
            -0.025289425626397133,
            -0.02686922252178192,
            0.045767273753881454,
            -0.03399926424026489,
            -0.019061582162976265
        ],
        [
            -0.07274661958217621,
            0.04056381806731224,
            0.027121324092149734,
            -0.005710985511541367,
            -0.058663446456193924,
            0.07420102506875992,
            -0.014038030989468098,
            0.036009423434734344,
            -0.01755242608487606,
            -0.041872113943099976
        ],
        [
            0.005435185041278601,
            -0.007658867631107569,
            0.006477924529463053,
            -9.595128358341753e-05,
            0.0029480422381311655,
            -0.006053199525922537,
            0.009525958448648453,
            0.02152889408171177,
            -0.007737511768937111,
            -0.02360905520617962
        ],
        [
            0.00874513853341341,
            -0.005016740877181292,
            -0.0033314249012619257,
            -0.0011065140133723617,
            0.0016745885368436575,
            -0.00735060591250658,
            0.01920281909406185,
            0.019025785848498344,
            -0.0016779016004875302,
            -0.028771959245204926
        ],
        [
            0.00042230577673763037,
            -0.01389882992953062,
            0.0077986521646380424,
            0.01611938700079918,
            0.0040253098122775555,
            -0.011011150665581226,
            0.013050349429249763,
            0.024611881002783775,
            -0.0056046065874397755,
            -0.04241534695029259
        ],
        [
            -3.471608579275198e-05,
            -6.858400593046099e-05,
            -0.003478819504380226,
            0.01215224526822567,
            0.0047158412635326385,
            -0.011402541771531105,
            0.003302789991721511,
            0.0036310995928943157,
            -0.006228949874639511,
            0.0025968218687921762
        ],
        [
            0.00811625923961401,
            -0.006020963657647371,
            -0.002677016193047166,
            -0.0015913776587694883,
            0.0010705373715609312,
            -0.002522776136174798,
            0.017850851640105247,
            0.012745117768645287,
            -0.0009597191819921136,
            -0.022945081815123558
        ],
        [
            0.008414286188781261,
            -0.012863051146268845,
            0.006562534719705582,
            0.003076585941016674,
            -0.007407367695122957,
            -0.00235258461907506,
            0.00806637853384018,
            0.017993025481700897,
            0.0010761538287624717,
            -0.025856120511889458
        ],
        [
            -0.03596245497465134,
            -0.025387587025761604,
            0.0895652249455452,
            0.17516840994358063,
            -0.050941694527864456,
            -0.06205224618315697,
            -0.08854386955499649,
            0.10797909647226334,
            -0.09305141866207123,
            -0.04361478239297867
        ],
        [
            -0.06638593226671219,
            0.037769269198179245,
            0.007424107287079096,
            -0.04450714588165283,
            -0.030020562931895256,
            0.11683822423219681,
            0.022064169868826866,
            0.005398123990744352,
            -0.012725387699902058,
            -0.03969660773873329
        ],
        [
            -0.00029586750315502286,
            -0.03139423578977585,
            -0.008585507050156593,
            -0.016914214938879013,
            0.011671098880469799,
            0.023183774203062057,
            0.006760930642485619,
            0.02778448723256588,
            0.0213745329529047,
            -0.0245555080473423
        ],
        [
            0.008122257888317108,
            -0.03291437774896622,
            -0.016432451084256172,
            -0.03478722274303436,
            -0.0051859356462955475,
            0.03511696681380272,
            0.02074505388736725,
            0.01432460080832243,
            0.03912472724914551,
            -0.01543083880096674
        ],
        [
            -0.002093270421028137,
            -0.06116849184036255,
            -0.015672795474529266,
            -0.0084758922457695,
            0.01581902988255024,
            0.03757845237851143,
            0.020078331232070923,
            0.032525550574064255,
            0.04921232908964157,
            -0.0375925675034523
        ],
        [
            -4.400241232360713e-05,
            -0.0027727074921131134,
            0.01933026872575283,
            -0.021993985399603844,
            0.0070797111839056015,
            0.005473882891237736,
            0.03666286915540695,
            0.004999395925551653,
            -0.007996181026101112,
            -0.03811683505773544
        ],
        [
            0.008940229192376137,
            -0.02936725690960884,
            -0.011515151709318161,
            -0.038368821144104004,
            -0.002958891214802861,
            0.04260670393705368,
            0.015163647010922432,
            0.009256602264940739,
            0.03263120725750923,
            -0.010881133377552032
        ],
        [
            -0.0011292403796687722,
            -0.04198756068944931,
            -0.031151562929153442,
            -0.02415524423122406,
            0.023884929716587067,
            0.041243672370910645,
            0.004159809555858374,
            0.015602391213178635,
            0.0386832170188427,
            -0.01130286231637001
        ],
        [
            -0.07687950879335403,
            -0.05508946627378464,
            0.16740143299102783,
            0.23384533822536469,
            -0.07545743137598038,
            -0.12709781527519226,
            -0.18828772008419037,
            0.19079339504241943,
            -0.056707628071308136,
            -0.08985348045825958
        ],
        [
            -0.07057876884937286,
            0.12000195682048798,
            -0.008060515858232975,
            -0.024212948977947235,
            -0.00909514632076025,
            0.04561012238264084,
            0.0785563513636589,
            -0.023884959518909454,
            0.02295207791030407,
            -0.08495660126209259
        ],
        [
            -0.011297434568405151,
            -0.028297442942857742,
            -0.02350575663149357,
            -0.01131550595164299,
            0.003989825956523418,
            0.023230519145727158,
            0.019044354557991028,
            0.03183707594871521,
            0.037127528339624405,
            -0.033157095313072205
        ],
        [
            0.01276219543069601,
            -0.03456452116370201,
            -0.02039666287600994,
            -0.055862776935100555,
            -0.008807359263300896,
            0.06961502879858017,
            0.03272649273276329,
            0.012945525348186493,
            0.045634131878614426,
            -0.01126778218895197
        ],
        [
            -0.011703562922775745,
            -0.05995643138885498,
            -0.004928403999656439,
            -0.04170355945825577,
            0.014091558754444122,
            0.0695834755897522,
            0.03297007828950882,
            0.025160934776067734,
            0.05328391119837761,
            -0.039681367576122284
        ],
        [
            -0.029650315642356873,
            -0.02861992083489895,
            -0.001773729221895337,
            -0.030518515035510063,
            0.03656594082713127,
            -0.011509413830935955,
            0.15172873437404633,
            -0.08050122857093811,
            0.07473024725914001,
            -0.07661128789186478
        ],
        [
            0.01657702401280403,
            -0.026216713711619377,
            -0.037534043192863464,
            -0.052827585488557816,
            0.0014243584591895342,
            0.06148640438914299,
            0.017550354823470116,
            0.012041728012263775,
            0.03818386420607567,
            -0.002304652240127325
        ],
        [
            -0.017956066876649857,
            -0.024857863783836365,
            -0.008220906369388103,
            -0.006795573979616165,
            0.012950519099831581,
            0.021650930866599083,
            0.011821904219686985,
            0.03031654842197895,
            0.045792486518621445,
            -0.02496856078505516
        ],
        [
            -0.08696870505809784,
            -0.1227184534072876,
            0.22169631719589233,
            0.28536123037338257,
            -0.130550354719162,
            -0.16186192631721497,
            -0.29735350608825684,
            0.22964657843112946,
            -0.03466404974460602,
            -0.01239034254103899
        ],
        [
            -0.06456463038921356,
            0.13018253445625305,
            -0.016513878479599953,
            -0.0639263391494751,
            0.045097559690475464,
            0.043114010244607925,
            0.1118762269616127,
            -0.042981456965208054,
            -0.015267116948962212,
            -0.11789418011903763
        ],
        [
            0.003863421268761158,
            0.0032160538248717785,
            0.0026075865607708693,
            0.013422047719359398,
            -0.028831014409661293,
            0.018137937411665916,
            -0.011558293364942074,
            0.03507927805185318,
            0.016325348988175392,
            -0.01645694486796856
        ],
        [
            0.0296629685908556,
            0.024406369775533676,
            -0.010931635275483131,
            -0.05219917371869087,
            -0.050183895975351334,
            0.07816872000694275,
            -0.009818792343139648,
            0.0164511576294899,
            0.0003415071405470371,
            0.017736434936523438
        ],
        [
            0.01613977923989296,
            0.0075082057155668736,
            -0.011772681027650833,
            -0.008053411729633808,
            -0.04628191888332367,
            0.041135527193546295,
            -0.003941101487725973,
            0.02000652439892292,
            -0.0032248282805085182,
            -0.030183963477611542
        ],
        [
            -0.05917147919535637,
            -0.04642071574926376,
            -0.02533452957868576,
            -0.10404345393180847,
            0.09604763239622116,
            -0.01683036796748638,
            0.24927465617656708,
            -0.15473386645317078,
            0.13653171062469482,
            -0.10060761868953705
        ],
        [
            0.03877279907464981,
            0.036714956164360046,
            -0.0069030942395329475,
            -0.0624697208404541,
            -0.030928684398531914,
            0.06620755791664124,
            -0.010896571911871433,
            -0.0032886741682887077,
            0.019841298460960388,
            0.020601095631718636
        ],
        [
            0.009299224242568016,
            -0.0015825945883989334,
            0.020336013287305832,
            -0.019059553742408752,
            -0.037951093167066574,
            0.04326311871409416,
            -0.03176667541265488,
            0.009873704053461552,
            0.028195705264806747,
            -0.0009191844146698713
        ],
        [
            -0.10370858013629913,
            -0.2403763234615326,
            0.21408115327358246,
            0.2852799892425537,
            -0.29835861921310425,
            -0.09393380582332611,
            -0.29870960116386414,
            0.1813618540763855,
            0.03629874810576439,
            0.14828930795192719
        ],
        [
            -0.040536537766456604,
            0.17949876189231873,
            0.011179058812558651,
            -0.10782812535762787,
            0.1247938796877861,
            0.021926838904619217,
            0.129971444606781,
            -0.13271114230155945,
            -0.046259116381406784,
            -0.13949483633041382
        ],
        [
            0.013266331516206264,
            -0.012063351459801197,
            0.02678391896188259,
            0.02488929219543934,
            -0.057319581508636475,
            0.004294705577194691,
            -0.08426602929830551,
            0.04474981501698494,
            0.008901379071176052,
            0.007320838049054146
        ],
        [
            0.05838689208030701,
            0.053323518484830856,
            -0.03204849362373352,
            -0.003264851402491331,
            -0.0820130705833435,
            0.06925548613071442,
            -0.05450798198580742,
            0.009073332883417606,
            0.004302354995161295,
            0.022820379585027695
        ],
        [
            0.015142226591706276,
            0.002775586675852537,
            -0.012458214536309242,
            0.0059991744346916676,
            -0.06076258420944214,
            0.01461783517152071,
            -0.036078549921512604,
            0.0383172370493412,
            -0.0008267907542176545,
            -0.01536718849092722
        ],
        [
            -0.05397290736436844,
            -9.320632671006024e-06,
            -0.06524405628442764,
            -0.11737985908985138,
            0.206208273768425,
            -0.053516533225774765,
            0.3156174123287201,
            -0.25790876150131226,
            0.10203901678323746,
            -0.10271680355072021
        ],
        [
            0.04087597504258156,
            0.044425416737794876,
            -0.003443254856392741,
            -0.027389049530029297,
            -0.05620283633470535,
            0.05118391290307045,
            -0.04121999442577362,
            0.04646512120962143,
            0.004293913021683693,
            -0.009424222633242607
        ],
        [
            0.007703863084316254,
            -0.025554096326231956,
            0.03507082536816597,
            0.03726940602064133,
            -0.06841929256916046,
            -0.0018288128776475787,
            -0.002282366156578064,
            -0.011712674051523209,
            0.038348134607076645,
            0.019053200259804726
        ],
        [
            -0.0749501883983612,
            -0.33804458379745483,
            0.18308484554290771,
            0.21772705018520355,
            -0.3854232132434845,
            0.013629529625177383,
            -0.24694180488586426,
            0.09068574011325836,
            0.13139840960502625,
            0.23234492540359497
        ],
        [
            -0.04617230221629143,
            0.2575724422931671,
            0.052540503442287445,
            -0.10052743554115295,
            0.20589610934257507,
            -0.023534124717116356,
            0.1507326364517212,
            -0.19915235042572021,
            -0.08822235465049744,
            -0.21565429866313934
        ],
        [
            0.020706260576844215,
            -0.005163450725376606,
            0.018263986334204674,
            0.04214983433485031,
            -0.09523632377386093,
            0.02792797051370144,
            -0.09420041739940643,
            0.009655836038291454,
            -0.006623952183872461,
            0.024193784222006798
        ],
        [
            0.05311073362827301,
            0.04882049560546875,
            0.002295676153153181,
            0.004445105791091919,
            -0.07219649106264114,
            0.06739266961812973,
            -0.09230411797761917,
            -0.005803532898426056,
            -0.013993125408887863,
            0.017347821965813637
        ],
        [
            0.05734683945775032,
            0.010925529524683952,
            0.025760333985090256,
            0.054617613554000854,
            -0.048069972544908524,
            0.0328470841050148,
            -0.0299459807574749,
            0.0071502267383039,
            -0.002110574394464493,
            0.026099463924765587
        ],
        [
            -0.10582536458969116,
            0.05332162603735924,
            -0.05564455687999725,
            -0.09713811427354813,
            0.24744345247745514,
            -0.06886168569326401,
            0.3720904290676117,
            -0.3294995129108429,
            0.04273902252316475,
            -0.14529278874397278
        ],
        [
            0.03962880000472069,
            0.0600358322262764,
            -0.021142929792404175,
            -0.01550751831382513,
            -0.043614380061626434,
            0.05489473417401314,
            -0.05845301225781441,
            0.02653426304459572,
            -0.003379214322194457,
            -0.0015533223049715161
        ],
        [
            -0.0008623372414149344,
            -0.029328690841794014,
            0.007717389613389969,
            0.013809701427817345,
            -0.0549464225769043,
            0.0277957022190094,
            0.01691560633480549,
            -0.015302244573831558,
            0.06012171134352684,
            0.020049413666129112
        ],
        [
            -0.05205836519598961,
            -0.40270787477493286,
            0.10763482004404068,
            0.1026635617017746,
            -0.3911970257759094,
            0.10382363945245743,
            -0.0679609626531601,
            0.04752765968441963,
            0.19146843254566193,
            0.22841742634773254
        ],
        [
            0.011845330707728863,
            0.2591390013694763,
            0.006742290686815977,
            -0.0854978933930397,
            0.23686522245407104,
            -0.03763600066304207,
            0.14861983060836792,
            -0.18886741995811462,
